digraph Tree {
node [shape=box] ;
0 [label="Total <= 579.5\ngini = 0.146\nsamples = 720\nvalue = [663, 57]\nclass = False"] ;
1 [label="gini = 0.0\nsamples = 616\nvalue = [616, 0]\nclass = False"] ;
0 -> 1 [labeldistance=2.5, labelangle=45, headlabel="True"] ;
2 [label="Total <= 650.0\ngini = 0.495\nsamples = 104\nvalue = [47, 57]\nclass = True"] ;
0 -> 2 [labeldistance=2.5, labelangle=-45, headlabel="False"] ;
3 [label="Total <= 585.0\ngini = 0.493\nsamples = 75\nvalue = [42, 33]\nclass = False"] ;
2 -> 3 ;
4 [label="Attack <= 73.5\ngini = 0.287\nsamples = 23\nvalue = [4, 19]\nclass = True"] ;
3 -> 4 ;
5 [label="HP <= 85.5\ngini = 0.444\nsamples = 3\nvalue = [2, 1]\nclass = False"] ;
4 -> 5 ;
6 [label="gini = 0.0\nsamples = 1\nvalue = [0, 1]\nclass = True"] ;
5 -> 6 ;
7 [label="gini = 0.0\nsamples = 2\nvalue = [2, 0]\nclass = False"] ;
5 -> 7 ;
8 [label="Attack <= 132.5\ngini = 0.18\nsamples = 20\nvalue = [2, 18]\nclass = True"] ;
4 -> 8 ;
9 [label="gini = 0.1\nsamples = 19\nvalue = [1, 18]\nclass = True"] ;
8 -> 9 ;
10 [label="gini = 0.0\nsamples = 1\nvalue = [1, 0]\nclass = False"] ;
8 -> 10 ;
11 [label="HP <= 52.5\ngini = 0.393\nsamples = 52\nvalue = [38, 14]\nclass = False"] ;
3 -> 11 ;
12 [label="gini = 0.0\nsamples = 4\nvalue = [0, 4]\nclass = True"] ;
11 -> 12 ;
13 [label="Attack <= 103.5\ngini = 0.33\nsamples = 48\nvalue = [38, 10]\nclass = False"] ;
11 -> 13 ;
14 [label="gini = 0.472\nsamples = 21\nvalue = [13, 8]\nclass = False"] ;
13 -> 14 ;
15 [label="gini = 0.137\nsamples = 27\nvalue = [25, 2]\nclass = False"] ;
13 -> 15 ;
16 [label="Sp. Atk <= 125.0\ngini = 0.285\nsamples = 29\nvalue = [5, 24]\nclass = True"] ;
2 -> 16 ;
17 [label="Total <= 690.0\ngini = 0.459\nsamples = 14\nvalue = [5, 9]\nclass = True"] ;
16 -> 17 ;
18 [label="Sp. Def <= 77.5\ngini = 0.219\nsamples = 8\nvalue = [1, 7]\nclass = True"] ;
17 -> 18 ;
19 [label="gini = 0.0\nsamples = 1\nvalue = [1, 0]\nclass = False"] ;
18 -> 19 ;
20 [label="gini = 0.0\nsamples = 7\nvalue = [0, 7]\nclass = True"] ;
18 -> 20 ;
21 [label="HP <= 114.0\ngini = 0.444\nsamples = 6\nvalue = [4, 2]\nclass = False"] ;
17 -> 21 ;
22 [label="gini = 0.0\nsamples = 4\nvalue = [4, 0]\nclass = False"] ;
21 -> 22 ;
23 [label="gini = 0.0\nsamples = 2\nvalue = [0, 2]\nclass = True"] ;
21 -> 23 ;
24 [label="gini = 0.0\nsamples = 15\nvalue = [0, 15]\nclass = True"] ;
16 -> 24 ;
}